digraph Tree {
node [shape=box, style="filled, rounded", color="black", fontname="helvetica"] ;
edge [fontname="helvetica"] ;
0 [label="petal length (cm) <= 2.7\ngini = 0.67\nsamples = 101\nvalue = [50, 53, 47]\nclass = versicolor", fillcolor="#f9fefb"] ;
1 [label="gini = 0.0\nsamples = 31\nvalue = [50, 0, 0]\nclass = setosa", fillcolor="#e58139"] ;
0 -> 1 [labeldistance=2.5, labelangle=45, headlabel="True"] ;
2 [label="sepal length (cm) <= 6.25\ngini = 0.5\nsamples = 70\nvalue = [0, 53, 47]\nclass = versicolor", fillcolor="#e9fcf1"] ;
0 -> 2 [labeldistance=2.5, labelangle=-45, headlabel="False"] ;
3 [label="petal length (cm) <= 4.85\ngini = 0.34\nsamples = 35\nvalue = [0, 36, 10]\nclass = versicolor", fillcolor="#70eca4"] ;
2 -> 3 ;
4 [label="sepal width (cm) <= 2.55\ngini = 0.05\nsamples = 26\nvalue = [0, 35, 1]\nclass = versicolor", fillcolor="#3fe685"] ;
3 -> 4 ;
5 [label="petal length (cm) <= 4.25\ngini = 0.28\nsamples = 6\nvalue = [0, 5, 1]\nclass = versicolor", fillcolor="#61ea9a"] ;
4 -> 5 ;
6 [label="gini = 0.0\nsamples = 5\nvalue = [0, 5, 0]\nclass = versicolor", fillcolor="#39e581"] ;
5 -> 6 ;
7 [label="gini = 0.0\nsamples = 1\nvalue = [0, 0, 1]\nclass = virginica", fillcolor="#8139e5"] ;
5 -> 7 ;
8 [label="gini = 0.0\nsamples = 20\nvalue = [0, 30, 0]\nclass = versicolor", fillcolor="#39e581"] ;
4 -> 8 ;
9 [label="sepal length (cm) <= 5.95\ngini = 0.18\nsamples = 9\nvalue = [0, 1, 9]\nclass = virginica", fillcolor="#8f4fe8"] ;
3 -> 9 ;
10 [label="gini = 0.0\nsamples = 4\nvalue = [0, 0, 5]\nclass = virginica", fillcolor="#8139e5"] ;
9 -> 10 ;
11 [label="petal width (cm) <= 1.55\ngini = 0.32\nsamples = 5\nvalue = [0, 1, 4]\nclass = virginica", fillcolor="#a06aec"] ;
9 -> 11 ;
12 [label="gini = 0.0\nsamples = 2\nvalue = [0, 0, 2]\nclass = virginica", fillcolor="#8139e5"] ;
11 -> 12 ;
13 [label="sepal length (cm) <= 6.05\ngini = 0.44\nsamples = 3\nvalue = [0, 1, 2]\nclass = virginica", fillcolor="#c09cf2"] ;
11 -> 13 ;
14 [label="gini = 0.0\nsamples = 1\nvalue = [0, 1, 0]\nclass = versicolor", fillcolor="#39e581"] ;
13 -> 14 ;
15 [label="gini = 0.0\nsamples = 2\nvalue = [0, 0, 2]\nclass = virginica", fillcolor="#8139e5"] ;
13 -> 15 ;
16 [label="petal width (cm) <= 1.75\ngini = 0.43\nsamples = 35\nvalue = [0, 17, 37]\nclass = virginica", fillcolor="#bb94f1"] ;
2 -> 16 ;
17 [label="sepal width (cm) <= 2.85\ngini = 0.26\nsamples = 13\nvalue = [0, 17, 3]\nclass = versicolor", fillcolor="#5cea97"] ;
16 -> 17 ;
18 [label="petal length (cm) <= 5.0\ngini = 0.49\nsamples = 5\nvalue = [0, 4, 3]\nclass = versicolor", fillcolor="#cef8e0"] ;
17 -> 18 ;
19 [label="gini = 0.0\nsamples = 4\nvalue = [0, 4, 0]\nclass = versicolor", fillcolor="#39e581"] ;
18 -> 19 ;
20 [label="gini = 0.0\nsamples = 1\nvalue = [0, 0, 3]\nclass = virginica", fillcolor="#8139e5"] ;
18 -> 20 ;
21 [label="gini = 0.0\nsamples = 8\nvalue = [0, 13, 0]\nclass = versicolor", fillcolor="#39e581"] ;
17 -> 21 ;
22 [label="gini = 0.0\nsamples = 22\nvalue = [0, 0, 34]\nclass = virginica", fillcolor="#8139e5"] ;
16 -> 22 ;
}